,lambda,f,df,E,dE,F,dF
0,0.0,0.0,0.0,0.43238958556143814,0.09754541793535286,0.0,0.0
1,0.005,0.0007618532179254345,0.0001958805373073552,0.32298298752000676,0.09669414115107729,0.0004513871004281782,0.00011605640782911868
2,0.01,0.0013026157391715643,0.0003900602068200949,0.21315781919007293,0.09587331648889888,0.0007717811353187836,0.00023110507589425266
3,0.015,0.0016214325226640014,0.000582585303008954,0.1029033394093517,0.09508237881829225,0.0009606755051035082,0.00034517343300507184
4,0.02,0.0017174266392254722,0.0007735011219153318,-0.007791415237051069,0.09432077905535649,0.0010175506418271386,0.0004582883164161904
5,0.025,0.0015896988191119732,0.0009628519907027418,-0.1189376345840003,0.0935879839210845,0.0009418737410692197,0.0005704759893359768
6,0.03,0.0012373269910366247,0.0011506812965549752,-0.2305467391660585,0.092883475699802,0.0007330984888223027,0.0006817621580483012
7,0.035,0.0006593658124405266,0.001337031514928223,-0.34263038461236306,0.0922067519976916,0.0003906647831841663,0.0007921719886515117
8,0.04,-0.00014515380922119903,0.0015219442371660064,-0.4552004661584448,0.09155732550280332,-8.600154927333355e-05,0.0009017301234198857
9,0.045,-0.0011772252043975584,0.0017054601974868478,-0.5682691232728843,0.09093472374607682,-0.0006974890425887679,0.0010104606967934367
10,0.05,-0.0024378664388340354,0.0018876192993532164,-0.68184874440486,0.09033848886466493,-0.0014444008861089648,0.0011183873510011357
11,0.055,-0.003928120820631875,0.002068460641233754,-0.7959519718455681,0.08976817736721551,-0.0023273552249143594,0.0012255332513246625
12,0.06,-0.005649057417253189,0.0022480225417684137,-0.9105917067120401,0.08922335990203809,-0.0033469854661371005,0.001331921101008387
13,0.065,-0.007601771582686823,0.002426342564346718,-1.025781114048499,0.08870362102787085,-0.004503940591299264,0.001437573155821636
14,0.07,-0.009787385495030776,0.002603457541112487,-1.1415336280471564,0.08820855898799204,-0.005798885474822721,0.001542511238281149
15,0.075,-0.012207048704723888,0.002779403596404505,-1.2578629573889089,0.08773778548719999,-0.007232501208848552,0.001646756751539338
16,0.08,-0.014861938693661259,0.002954216169645634,-1.3747830907023655,0.08729092547240912,-0.0088054854345049,0.0017503306929457585
17,0.085,-0.017753261445461632,0.0031279300376922596,-1.4923083021434707,0.08686761691646758,-0.01051855267978223,0.0018532536672888347
18,0.09,-0.020882252027080384,0.0033005793366548716,-1.6104531570920813,0.0864675106056275,-0.012372434704130655,0.0019555458997242412
19,0.095,-0.024250175182050526,0.00347219758320249,-1.7292325179658832,0.08609026992981905,-0.014367880849946746,0.0020572272483974706
20,0.1,-0.027858325935563144,0.00364281769536146,-1.848661550152599,0.08573557067692816,-0.01650565840107499,0.0021583172167668183
21,0.105,-0.0317080302116306,0.0038124720128214365,-1.968755728056479,0.08540310082981648,-0.01878655294846814,0.00225883496563439
22,0.11,-0.03580064546255457,0.00398119231675821,-2.0895308412581812,0.08509256036640998,-0.02121136876313799,0.0023587993248908408
23,0.115,-0.04013756131093871,0.004149009849186216,-2.2110030007870876,0.08480366106287862,-0.023780929176538686,0.0024582288049814576
24,0.12,-0.04472020020446088,0.004315955331850576,-2.333188645503668,0.08453612629934118,-0.02649607696850985,0.002557141608099425
25,0.125,-0.04955001808362525,0.004482058984669525,-2.4561045485882147,0.08428969086788925,-0.029357674762910124,0.0026555556391126963
26,0.13,-0.05462850506270733,0.004647350543737696,-2.5797678241339526,0.08406410078301399,-0.03236660543106736,0.0027534885162306833
27,0.135,-0.0599571861241035,0.0048118592789002015,-2.7041959338414188,0.0838591130936844,-0.03552377250317072,0.002850957581416647
28,0.14,-0.06553762182628375,0.0049756140109075515,-2.829406693811009,0.08367449569701715,-0.03883010058772252,0.00294797991055174
29,0.145,-0.07137140902552375,0.005138643128159608,-2.955418281425409,0.08351002715333854,-0.042286535799154146,0.0030445723233555586
30,0.15,-0.07746018161162915,0.005300974603048682,-3.0822492423243943,0.08336549650186345,-0.04589404619373214,0.003140751393069195
31,0.155,-0.08380561125780162,0.005462636007909529,-3.209918497460137,0.08324070307699387,-0.04965362221384304,0.0032365334559053796
32,0.16,-0.09040940818481502,0.005623654530584102,-3.338445350231538,0.08313545632483506,-0.05356627714075686,0.0033319346202703745
33,0.165,-0.09727332193965132,0.005784056989608836,-3.4678494936885755,0.08304957561924212,-0.05763304755595761,0.0034269707757622198
34,0.17,-0.10439914218875224,0.005943869849031209,-3.598151017803147,0.08298289007722345,-0.06185499381113359,0.0035216576019493364
35,0.17500000000000002,-0.11178869952596138,0.006103119232862011,-3.7293704167947794,0.08293523837351029,-0.0662332005068715,0.0036160105769332852
36,0.18,-0.11944386629533277,0.006261830939169246,-3.861528596506929,0.08290646855312486,-0.07076877698015863,0.003710044985699205
37,0.185,-0.12736655742881808,0.006420030453818703,-3.994646881821609,0.08289643784243522,-0.07546285780070061,0.0038037759282568994
38,0.19,-0.13555873129897833,0.0065777429638662985,-4.12874702410636,0.08290501245749282,-0.08031660327614079,0.003897218327575611
39,0.195,-0.14402239058671285,0.006734993370605754,-4.263851208679526,0.08293206740977048,-0.08533119996617725,0.003990386937314583
40,0.2,-0.15275958316406424,0.006891806302275395,-4.399982062284678,0.08297748630839001,-0.09050786120561201,0.004083296349351652
41,0.20500000000000002,-0.16177240299210638,0.0070482061264265155,-4.537162660562686,0.08304116115870458,-0.09584782763633687,0.004175961001111331
42,0.21,-0.17106299103386924,0.007204216961955807,-4.675416535505718,0.08312299215665157,-0.1013523677482282,0.004268395182693847
43,0.215,-0.18063353618228817,0.007359862690802816,-4.814767682880557,0.08322288747838687,-0.10702277842894362,0.004360613043805721
44,0.22,-0.1904862762030799,0.007515166969313193,-4.955240569609529,0.0833407630647524,-0.11286038552256245,0.004452628600492325
45,0.225,-0.2006234986924298,0.007670153239268009,-5.096860141084491,0.08347654240011072,-0.11886654439700171,0.004544455741672597
46,0.23,-0.21104754204938025,0.007824844738577601,-5.2396518284064655,0.08363015628503093,-0.12504264052014233,0.00463610823547499
47,0.23500000000000001,-0.22176079646270352,0.007979264511639196,-5.383641555524477,0.0838015426023917,-0.13139009004453706,0.004727599735374217
48,0.24,-0.2327657049120706,0.008133435419355031,-5.528855746258671,0.08399064607627175,-0.13791034040058864,0.004818943786126842
49,0.245,-0.24406476418324452,0.008287380148808346,-5.67532133118452,0.08419741802333687,-0.14460487089803742,0.0049101538295041654
50,0.25,-0.2556605258970084,0.00844112122259292,-5.823065754355795,0.08442181609593138,-0.15147519333558634,0.005001243209819843
51,0.255,-0.26755559755145697,0.008594681007790999,-5.972116979843761,0.08466380401670251,-0.15852285261844373,0.005092225179249181
52,0.26,-0.27975264357728236,0.008748081724594086,-6.122503498064262,0.08492335130387053,-0.16574942738356496,0.005183112902936826
53,0.265,-0.2922543864055882,0.008901345454559667,-6.274254331870409,0.08520043298692959,-0.1731565306323171,0.0052739194638887574
54,0.27,-0.305063607547714,0.009054494148495955,-6.427399042375981,0.08549502931192512,-0.18074581037025916,0.005364657867643887
55,0.275,-0.31818314868652564,0.009207549633966304,-6.581967734485474,0.08580712543626107,-0.18851895025371634,0.005455341046720319
56,0.28,-0.33161591277852764,0.009360533622403149,-6.737991062094508,0.08613671111182111,-0.19647767024276544,0.005545981864830251
57,0.28500000000000003,-0.3453648651661325,0.009513467715821705,-6.895500232928384,0.08648378035654328,-0.20462372726023867,0.005636593120857749
58,0.29,-0.3594330346992223,0.009666373413120053,-7.054527012980586,0.08684833111332459,-0.2129589158562327,0.005727187552591454
59,0.295,-0.37382351486531107,0.0098192721159547,-7.2151037305180665,0.08723036489625723,-0.22148506887771377,0.005817777840205774
60,0.3,-0.38853946492726443,0.009972185134176545,-7.377263279606979,0.08762988642322686,-0.23020405814260014,0.005908376609481611
61,0.305,-0.4035841110676355,0.010125133690812764,-7.541039123122658,0.08804690323463393,-0.2391177951177647,0.005998996434758054
62,0.31,-0.41896074753849355,0.010278138926578464,-7.7064652951944765,0.08848142529756065,-0.24822823160029214,0.006089649841605472
63,0.315,-0.434672737815589,0.010431221903901113,-7.873576403040914,0.08893346459519007,-0.2575373604013048,0.006180349309209934
64,0.32,-0.4507235157555698,0.010584403610439467,-8.04240762814841,0.0894030347006701,-0.2670472160315971,0.006271107272458118
65,0.325,-0.46711658675484813,0.01073770496207744,-8.212994726735744,0.08989015033525756,-0.27675987538824726,0.006361936123711139
66,0.33,-0.48385552890866634,0.01089114680537304,-8.385374029458205,0.09039482691046763,-0.2866774584413473,0.006452848214255508
67,0.335,-0.5009439941687219,0.011044749919440162,-8.559582440285809,0.09091708005355197,-0.29680212891987917,0.006543855855418065
68,0.34,-0.5183857094976769,0.011198535017241303,-8.73565743450608,0.09145692511657762,-0.30713609499574507,0.006634971319331896
69,0.34500000000000003,-0.5361844780186686,0.011352522746266963,-8.913637055780086,0.09201437666837346,-0.317681609964836,0.006726206839338869
70,0.35000000000000003,-0.5543441801579441,0.011506733688578172,-9.093559912194834,0.09258944796980505,-0.3284409729240264,0.006817574610014829
71,0.355,-0.5728687747783496,0.011661188360185025,-9.275465171239091,0.09318215043189038,-0.3394165294427503,0.0069090867868013914
72,0.36,-0.5917623003016477,0.011815907209736716,-9.459392553635311,0.09379249305730512,-0.350610672227958,0.007000755485229803
73,0.365,-0.6110288758171301,0.01197091061649471,-9.645382325954927,0.09442048186509697,-0.3620258417809536,0.007092592779720077
74,0.37,-0.6306727021740564,0.012126218887561414,-9.833475291939592,0.09506611929924964,-0.37366452704464886,0.007184610701939018
75,0.375,-0.650698063055204,0.012281852254336548,-10.023712782451,0.09572940362147216,-0.3855292660396265,0.007276821238700678
76,0.38,-0.6711093260287253,0.012437830868171733,-10.216136643970316,0.096410328288805,-0.3976226464873502,0.007369236329391759
77,0.385,-0.691910943575234,0.012594174795194778,-10.410789225556982,0.09710888131687762,-0.40994730641869864,0.007461867862905074
78,0.39,-0.7131074540870035,0.012750904010274119,-10.607713364189323,0.09782504462980136,-0.42250593476597625,0.00755472767406357
79,0.395,-0.7347034828358687,0.012908038390094554,-10.80695236839263,0.09855879339774641,-0.43530127193638113,0.007647827539517795
80,0.4,-0.7567037429062946,0.013065597705315568,-11.008550000062698,0.09931009536355875,-0.44833611036483456,0.007741179173099822
81,0.405,-0.7791130360899068,0.013223601611783757,-11.212550454398837,0.10007891015992339,-0.4616132950439779,0.007834794220616732
82,0.41000000000000003,-0.801936253737578,0.013382069640772792,-11.4189983378416,0.10086518861866275,-0.4751357240290214,0.00792868425406794
83,0.41500000000000004,-0.8251783775648409,0.013541021188223205,-11.62793864392745,0.10166887207422051,-0.4889063489149396,0.008022860765269913
84,0.42,-0.848844480406509,0.013700475502958906,-11.83941672695552,0.10248989166318151,-0.5029281752835737,0.008117335158874632
85,0.425,-0.8729397269158579,0.013860451673856302,-12.053478273373614,0.10332816762222051,-0.5172042631178863,0.008212118744767481
86,0.43,-0.8974693742036965,0.014020968615945177,-12.270169270776691,0.10418360858682545,-0.5317377271806017,0.008307222729832208
87,0.435,-0.9224387724124377,0.014182045055423451,-12.489535974425735,0.10505611089348907,-0.5465317373543349,0.008402658209072397
88,0.44,-0.9478533652200412,0.014343699513569874,-12.711624871179993,0.10594555788788723,-0.5615895189401702,0.008498436156079958
89,0.445,-0.9737186902685355,0.014505950289542466,-12.936482640751834,0.10685181924227133,-0.5769143529115546,0.00859456741284346
90,0.45,-1.0000403795115727,0.0146688154420546,-13.164156114177729,0.10777475028471167,-0.5925095761202186,0.008691062678891467
91,0.455,-1.02682415947538,0.014832312769924494,-13.3946922294205,0.10871419134362846,-0.6083785814507868,0.008787932499768393
92,0.46,-1.0540758514271538,0.014996459791498135,-13.628137984002294,0.1096699671105102,-0.6245248179205487,0.008885187254842879
93,0.465,-1.0818013714448522,0.015161273722951814,-13.864540384586434,0.11064188602420617,-0.6409517907208095,0.008982837144452359
94,0.47000000000000003,-1.110006730382219,0.015326771455485236,-14.10394639342337,0.11162973967992645,-0.6576630611961678,0.009080892176390297
95,0.47500000000000003,-1.1386980337224015,0.015492969531421874,-14.346402871579215,0.11263330226631044,-0.6746622467577859,0.009179362151746
96,0.48,-1.1678814813139295,0.01565988411924104,-14.591956518884174,0.11365233003337771,-0.6919530207269612,0.009278256650111474
97,0.485,-1.1975633669821093,0.015827530987571618,-14.840653810531776,0.11468656079489706,-0.7095391121048829,0.00937758501417308
98,0.49,-1.2277500780091595,0.015995925478185232,-15.0925409302819,0.11573571346763374,-0.7274243052646197,0.009477356333710382
99,0.495,-1.2584480944761296,0.01616508247803441,-15.347663700218874,0.11679948765057965,-0.7456124395612164,0.009577579429029148
100,0.5,-1.2896639884596706,0.01633501639038845,-15.606067507043718,0.11787756324656903,-0.7641074088557912,0.009678262833859782
101,0.505,-1.3214044230765989,0.01650574110512943,-15.86779722487492,0.11896960012869184,-0.7829131609494546,0.009779414777758115
102,0.51,-1.353676151369264,0.016677269968276474,-16.13289713456689,0.1200752378535916,-0.8020336969229048,0.00988104316804899
103,0.515,-1.3864860150246416,0.016849615750818805,-16.401410839553733,0.12119409542348078,-0.8214730703775095,0.009983155571360283
104,0.52,-1.4198409429202528,0.017022790616941973,-16.673381178261636,0.12232577109845703,-0.8412353865737829,0.010085759194797397
105,0.525,-1.453747949489978,0.01719680609174465,-16.948850133140652,0.1234698422603767,-0.8613248014631554,0.01018886086681593
106,0.53,-1.4882141329030318,0.017371673028548962,-17.22785873639492,0.12462586532929232,-0.8817455206090404,0.01029246701785352
107,0.535,-1.523246673049644,0.01754740157591754,-17.51044697251733,0.12579337573323604,-0.9025017979933813,0.01039658366078791
108,0.54,-1.558852829326872,0.017724001144495398,-17.79665367775243,0.1269718879318081,-0.9235979347047755,0.010501216371291245
109,0.545,-1.5950399382188154,0.017901480373808412,-18.086516436647955,0.12816089549406456,-0.9450382775047869,0.010606370268158647
110,0.55,-1.631815410665335,0.018079847099150056,-18.380071475879276,0.12935987123081916,-0.9668272172689496,0.010712049993689075
111,0.555,-1.6691867292140463,0.018259108318701565,-18.677353555565247,0.13056826738164748,-0.9889691872993651,0.010818259694204503
112,0.56,-1.7071614449507866,0.018439270161032195,-18.97839585832527,0.13178551585692533,-1.0114686615060478,0.010925003000794279
113,0.5650000000000001,-1.745747174204265,0.018620337853134498,-19.283229876361247,0.13301102853524038,-1.0343301524544775,0.011032283010376492
114,0.5700000000000001,-1.7849515950212451,0.01880231568915375,-19.591885296889203,0.13424419761708964,-1.0575582092771958,0.011140102267170606
115,0.5750000000000001,-1.8247824434092657,0.018985206999974084,-19.904389886272384,0.1354843960359969,-1.0811574154476717,0.011248462744677678
116,0.58,-1.8652475093446892,0.019169014123828907,-20.220769373254996,0.1367309779288496,-1.1051323864151286,0.01135736582826745
117,0.585,-1.906354632544688,0.019353738378103877,-20.54104733172892,0.13798327916813904,-1.1294877670995054,0.011466812298472026
118,0.59,-1.9481116980026743,0.019539380032504276,-20.865245063503593,0.13924061795956427,-1.1542282292462633,0.011576802315087915
119,0.595,-1.9905266312878043,0.019725938283759115,-21.193381481592354,0.1405022955096645,-1.1793584686414107,0.01168733540218858
120,0.6,-2.0336073936098673,0.01991341123203317,-21.525472994560303,0.14176759676947548,-1.2048832021875184,0.011798410434148908
121,0.605,-2.077361976652651,0.020101795859222074,-21.86153339252229,0.1430357912616078,-1.2308071648425651,0.01191002562278537
122,0.61,-2.1217983971794556,0.02029108800929998,-22.20157373540836,0.14430613399983513,-1.2571351064237801,0.01202217850571228
123,0.615,-2.166924691416101,0.020481282370891685,-22.545602244155532,0.1455778665120268,-1.2838717882796569,0.012134865936016042
124,0.62,-2.21274890921799,0.020672372462237833,-22.893624195508266,0.1468502179790539,-1.3110219798340206,0.012248084073347234
125,0.625,-2.2592791080292267,0.020864350618722258,-23.245641821143224,0.1481224065045886,-1.3385904550068937,0.012361828376530756
126,0.63,-2.3065233466432566,0.021057207983126488,-23.601654211859497,0.14939364053221124,-1.3665819885177637,0.012476093597791744
127,0.635,-2.3544896787759892,0.021250934498777845,-23.961657227587978,0.15066312042882557,-1.395001352077751,0.012590873778695933
128,0.64,-2.403186146463958,0.021445518905755086,-24.325643414002528,0.15193004025482815,-1.423853310478113,0.012706162247901547
129,0.645,-2.4526207733015744,0.02164094874031613,-24.69360192651125,0.15319358974368014,-1.453142617583415,0.012821951620820232
130,0.65,-2.5028015575331866,0.02183721033771261,-25.065518462423825,0.15445295651493662,-1.4828740122386732,0.012938233801284645
131,0.655,-2.553736465017322,0.02203428883855875,-25.441375202076813,0.15570732854634267,-1.5130522141007696,0.013054999985321919
132,0.66,-2.605433422081644,0.02223216819892163,-25.821150759699123,0.15695589693153728,-1.5436819194051163,0.013172240667132
133,0.665,-2.65790030828952,0.022430831204307496,-26.20482014477919,0.1581978589506212,-1.5747677966799514,0.013289945647374337
134,0.67,-2.7111449491397313,0.022630259487722314,-26.592354734667595,0.15943242148111464,-1.6063144824210214,0.013408104043868496
135,0.675,-2.7651751087229073,0.0228304335519882,-26.983722259123297,0.1606588047762775,-1.6383265767406239,0.013526704304816327
136,0.68,-2.819998482359374,0.02303133279651046,-27.37888679746456,0.1618762466370301,-1.6708086390056378,0.013645734224661058
137,0.685,-2.8756226892444925,0.02323293554869382,-27.777808788938145,0.1630840070018895,-1.7037651834799938,0.013765180962700949
138,0.6900000000000001,-2.9320552651287155,0.023435219100218025,-28.180445056861444,0.1642813729772105,-1.7372006749877107,0.013885031064582073
139,0.6950000000000001,-2.989303655060647,0.023638159748394293,-28.586748847026726,0.16546766432679208,-1.7711195246132634,0.014005270486801415
140,0.7000000000000001,-3.0473752062222914,0.023841732842834126,-28.99666988078107,0.16664223943624437,-1.8055260854565711,0.014125884624357479
141,0.705,-3.1062771608864637,0.024045912837672243,-29.41015442311027,0.16780450176289774,-1.8404246484603635,0.01424685834169162
142,0.71,-3.166016649526817,0.024250673349601203,-29.82714536597129,0.1689539067768621,-1.875819438327971,0.014368176007072735
143,0.715,-3.226600684111615,0.024455987221979284,-30.2475823270144,0.17008996939281956,-1.9117146095499802,0.014489821530580248
144,0.72,-3.2880361516118946,0.024661826595288126,-30.671401763737848,0.17121227188571597,-1.948114242557916,0.014611778405849265
145,0.725,-3.3503298077556902,0.024868162984224212,-31.098537103011992,0.17232047227641634,-1.9850223400237064,0.014734029755746163
146,0.73,-3.413488271058707,0.02507496736171187,-31.528918885794326,0.17341431316598435,-2.022442823322943,0.014856558382145092
147,0.735,-3.477518017162014,0.025282210250131904,-31.962474926749522,0.17449363098948928,-2.0603795291800453,0.01497934681997963
148,0.74,-3.542425373506381,0.025489861820060356,-32.39913048837015,0.1755583656524939,-2.0988362065128827,0.015102377395744078
149,0.745,-3.608216514372005,0.025697891996809375,-32.83880846908204,0.176608570505615,-2.1378165134938825,0.0152256322906174
150,0.75,-3.6748974563112444,0.025906270575056217,-33.281429604706915,0.17764442260494837,-2.17732401484399,0.01534909360837926
151,0.755,-3.74247405400053,0.02611496734183757,-33.72691268254235,0.17866623319930366,-2.217362179374987,0.0154727434482824
152,0.76,-3.810951996536131,0.026323952208171787,-34.17517476722304,0.17967445837866508,-2.2579343777947853,0.01559656398303691
153,0.765,-3.8803368041965456,0.02653319534955421,-34.62613143742145,0.18066970981304756,-2.2990438807891884,0.015720537542051712
154,0.77,-3.950633825692412,0.02674266735555051,-35.07969703236465,0.1816527655065814,-2.340693857392506,0.01584464670006645
155,0.775,-4.0218482359225565,0.02695233938868727,-35.535784907058456,0.18262458048891753,-2.3828873736580416,0.015968874371291887
156,0.78,-4.093985034252819,0.02716218335281058,-35.99430769504815,0.18358629736493412,-2.425627391638325,0.016093203909159963
157,0.785,-4.167049043331064,0.027372172071056917,-36.45517757748128,0.18453925664471696,-2.468916768683018,0.016217619211768976
158,0.79,-4.241044908450531,0.027582279473546186,-36.918306557202854,0.185485006778754,-2.5127582570617153,0.016342104833089028
159,0.795,-4.3159770974698315,0.027792480794878286,-37.38360673657699,0.1864253138292626,-2.557154503916537,0.01646664609997589
160,0.8,-4.391849901295997,0.028002752781484893,-37.85099059772348,0.18736217071692926,-2.602108051548334,0.016591229235023985
161,0.805,-4.46866743493408,0.028213073908861443,-38.320371283850776,0.1882978059942282,-2.6476213380385567,0.01671584148527319
162,0.81,-4.546433639104221,0.028423424608686004,-38.791662880393304,0.18923469211163957,-2.693696698207346,0.016840471256773532
163,0.8150000000000001,-4.625152282424498,0.02863378750581384,-39.264780694688426,0.19017555316214765,-2.740336364906841,0.016965108255001055
164,0.8200000000000001,-4.704826964155361,0.028844147665138393,-39.73964153297837,0.1911233721125863,-2.7875424706472147,0.017089743631119415
165,0.8250000000000001,-4.7854611174991355,0.029054492848313445,-40.21616397359294,0.19208139755795242,-2.835317049551586,0.017214370134084077
166,0.8300000000000001,-4.867058013445748,0.029264813780358966,-40.69426863523802,0.19305315006737853,-2.883662039634552,0.01733898226860245
167,0.835,-4.949620765153776,0.02947510442621591,-41.17387843941434,0.19404242822790996,-2.9325792853979036,0.01746357645898864
168,0.84,-5.033152332854353,0.029685362277381343,-41.654918866096764,0.19505331453539446,-2.982070540736112,0.017588151218990655
169,0.845,-5.117655529262883,0.02989558864884679,-42.13731820190824,0.19609018133051237,-3.0321374721426975,0.017712707327722108
170,0.85,-5.203133025483655,0.03010578898668954,-42.62100778016615,0.1971576970328342,-3.082781662208626,0.017837248011905643
171,0.855,-5.289587357389761,0.030315973186825145,-43.105922212292015,0.19826083298686809,-3.1340046134023187,0.017961779134729242
172,0.86,-5.377020932460786,0.030526155925632195,-43.59199961022216,0.19940487130148757,-3.1858077521208874,0.01808630939173664
173,0.865,-5.465436037059806,0.030736357003406142,-44.07918179959594,0.20059541413788354,-3.2381924330016503,0.018210850514318793
174,0.87,-5.55483484413104,0.03094660170191368,-44.567414523636984,0.20183839498131484,-3.2911599434828775,0.018335417481559722
175,0.875,-5.645219421299304,0.031156921157673188,-45.05664763777955,0.2031400925179459,-3.3447115086026074,0.018460028741399816
176,0.88,-5.736591739352896,0.031367352753039396,-45.54683529523163,0.20450714782955226,-3.398848296024629,0.01858470644234788
177,0.885,-5.82895368109185,0.03157794052767987,-46.03793612378786,0.2059465857148658,-3.453571421280947,0.01870947667727506
178,0.89,-5.9223070505243385,0.031788735613656145,-46.52991339432744,0.20746584104578855,-3.5088819532205204,0.01883436974119417
179,0.895,-6.0166535823950085,0.03199979669803536,-47.022735181534856,0.2090727911676689,-3.5647809196546616,0.018959420405350435
180,0.9,-6.111994952030102,0.032211190517806486,-47.516374517475455,0.21077579545309608,-3.6212693131901315,0.01908466821045226
181,0.905,-6.208332785485972,0.03242299239285802,-48.010809538730044,0.21258374321522858,-3.678348097241988,0.01921015778245289
182,0.91,-6.305668669988009,0.032635286803907544,-48.50602362784517,0.21450611127515612,-3.7360182122185015,0.019335939174965337
183,0.915,-6.404004164650294,0.03284816802360514,-49.002005549896,0.21655303255346617,-3.7942805818723944,0.019462068243182147
184,0.92,-6.503340811466188,0.03306174081054307,-49.498749584958134,0.21873537711212093,-3.8531361198126084,0.019588607055066133
185,0.925,-6.603680146562716,0.033276121177672015,-49.99625565727564,0.2210648471008883,-3.9125857361723653,0.019715624346626007
186,0.93,-6.7050237117127445,0.03349143724862562,-50.494529461860864,0.22355408705312707,-3.972630344429966,0.019843196029276363
187,0.935,-6.80737306610051,0.03370783021776945,-50.99358258919311,0.2262168109162311,-4.0332708683797005,0.019971405758652916
188,0.9400000000000001,-6.910729798337217,0.03392545543241245,-51.493432648570604,0.22906794707876094,-4.094508249250913,0.020100345575807275
189,0.9450000000000001,-7.015095538724433,0.0341444836186083,-51.99410339053661,0.23212380245288866,-4.156343452973891,0.02023011663347663
190,0.9500000000000001,-7.1204719717637115,0.03436510227534794,-52.49562482862335,0.2354022463691491,-4.218777477591635,0.02036083002212286
191,0.9550000000000001,-7.226860848911123,0.03458751726574914,-52.99803336045264,0.23892291462228094,-4.281811360816737,0.020492607712689476
192,0.96,-7.334264001575207,0.03481195463809296,-53.50137188798718,0.2427074334527671,-4.3454461877324775,0.02062558363553963
193,0.965,-7.44268335435647,0.03503866271429098,-54.005689936447915,0.24677966254286562,-4.409683098637045,0.020759904917842978
194,0.97,-7.552120938524245,0.035267914488560176,-54.51104377109552,0.2511659552355591,-4.474523297028373,0.020895733304756105
195,0.975,-7.662578905726515,0.03550001038477703,-55.01749651072643,0.255895433147078,-4.539968057727019,0.0210332467931153
196,0.98,-7.774059541923818,0.03573528142710485,-55.525118236344596,0.26100027114579893,-4.606018735131803,0.02117264150998774
197,0.985,-7.886565281535952,0.035974092885012396,-56.03398609305273,0.26651598733749304,-4.672676771601525,0.02131413387229271
198,0.99,-8.000098721785317,0.036216848460614584,-56.54418438275346,0.27248173127427733,-4.739943705953192,0.021457963067740917
199,0.995,-8.11466263721562,0.03646399509321784,-57.05580464476819,0.27894056216150337,-4.807821182064141,0.021604393901458668
200,1.0,-8.230259994358178,0.03671602846283291,-57.56894572098127,0.2859397074673312,-4.876310957561614,0.021753720056740228
